{"input_weights": [[0.283947427689461, -1.2373767110057572, 0.24958111261710636, 0.932912901030583, 0.4094138885091293, 0.22351170708286713, -1.2341390161248351, -1.0775309773586559, -0.3373620479408011, -0.8706184057262892], [0.8047645722444057, -1.6214128000552803, 0.18967656364674615, -0.23472754056624703, 1.012412733729458, -0.4481316218566932, -0.2524310892745568, 0.9736687503582013, -0.5132984703294484, -0.43775083370000556], [1.3551406864689506, -0.6752273169415708, 2.1239314378950307, -0.946959996067577, -2.3287401310979834, 0.9597845392465524, 0.6351772468688583, 1.2818912706039434, 0.42861607312758093, -0.8363960816571449]], "output_weights": [[-0.04894821137507175, -1.830170885978349], [1.1691103779490124, 2.1692430124254294], [1.5955295543579608, -1.8647113444510728], [-0.06211759137911754, 0.3538233866227736], [-2.6470964042325678, 0.42270450537573934], [0.6497250927575954, -0.18723810990525214], [0.41624430873531804, 0.34790676754235605], [0.34974835389982123, -0.49097508147089264], [0.8914195607696974, 0.4090475557484105], [0.36370447850479226, 0.5725813837631043]]}