{"input_weights": [[0.22535223020056197, -1.2588174126051022, 0.23173670198150584, 0.9265674591235546, 0.35362414141443205, 0.22041895177540388, -1.2473311397075895, -1.0732742730802782, -0.3360916556087486, -0.8918134151557139], [0.9145064820757204, -1.6334638107611126, 0.23938988967177313, -0.24346294817484657, 1.1455018719430496, -0.47735419605411117, -0.2577079256510107, 0.9764510107755332, -0.5269152491144043, -0.4334694792826909], [1.2231681679610287, -0.5744624489138012, 1.876569756701134, -0.9223225966479857, -2.1431031763763055, 0.9068578930445003, 0.6380612672763238, 1.2324340548736026, 0.4039497455904018, -0.8184531135881026]], "output_weights": [[-0.19902354960789748, -1.7510688840933253], [1.2189733673817018, 2.127021309714647], [1.4190647731444288, -1.671265688619124], [-0.0014882486445258118, 0.2847393661267074], [-2.5127947047385097, 0.1785470027764113], [0.5964866910518769, -0.08233733954002291], [0.39197130821257553, 0.40888755362568124], [0.2617255825283657, -0.40180822509868513], [0.8632176264547727, 0.46113199666102], [0.4288386377932604, 0.5161492566715289]]}