{"input_weights": [[0.15792551232848387, -1.4666094350685714, 0.1645234005705637, 0.9426320609263451, 0.4463190067446859, 0.21967029059785595, -1.2435422434055519, -1.091327721301562, -0.42413178899746246, -0.913551363779627], [0.7999343829188961, -1.3848457223803703, 0.26107747896432365, -0.23816598801576103, 0.8646554818849448, -0.4165100436167852, -0.22927588864616882, 0.9856265946919684, -0.355503107616867, -0.37356069347112814], [1.192937881051366, -0.5535418684690729, 1.8272819515674352, -0.918266739971353, -2.1137282220983376, 0.8985469914229645, 0.6363959436938494, 1.2229558756151822, 0.4006616252168135, -0.8177986517071852]], "output_weights": [[-0.09243524081184795, -1.6376441006017026], [1.1829010275773635, 2.063404462278167], [1.430389803564809, -1.6290371470995737], [-0.0453853980256531, 0.2637427415190009], [-2.3675778630425452, 0.23566589918828254], [0.5086843558164885, -0.1190889510484335], [0.4119961100862531, 0.4037313210654397], [0.33417875097043326, -0.3826207861263758], [0.8216351786345903, 0.43964431289394224], [0.45388678777105484, 0.4903995297115031]]}