{"input_weights": [[0.1045926276077772, -1.309677335525642, 0.27892394161568435, 0.9840853979959845, 0.3432940836813605, 0.2236310356893822, -1.156738142018072, -1.1192997232965818, -0.3285690226975155, -0.8860373110242649], [0.872088254614414, -1.482513959411287, 0.22956481330070727, -0.23811012127703943, 1.107529506284676, -0.4158214209573405, -0.22727626762306136, 0.9024639206763071, -0.39204098141836213, -0.35367895021099444], [1.2027471420589018, -0.5665200945511689, 1.6181505831571537, -0.8732366988870567, -1.6849935691551576, 0.9080730852950408, 0.6716527464661122, 1.1666940778030177, 0.3541199191816159, -0.8261555241480657]], "output_weights": [[-0.17431181102541987, -1.580790638528037], [1.1912830808356536, 1.8247941560290888], [1.2895239369813527, -1.7394694990258583], [-0.006564901996200824, 0.22388194072805112], [-2.164195395833876, 0.19979569788290846], [0.5042787354578903, -0.06911475096437109], [0.38710008501830334, 0.40341209977252096], [0.29935590959490943, -0.3585336091067604], [0.8678376723427126, 0.47119692292703863], [0.4416137660400087, 0.48502107997665206]]}